6 14 8 8 8 8 1
0.376207 -0.746503 -0.527288 -1.09133 2.83394 2.11128 -0.0752228 -0.0101495 -1.464 -0.132997 0.343698 0.297766 -0.336922 0.479173 0.501426 0.823054 -1.41306 0.0106876 -0.346618 1.49019 0.416109 0.101757 -0.479707 -1.20146 -1.61497 -0.110842 -1.45904 -0.458448 1.16156 0.679088 -0.481592 0.950008 0.0548661 -1.0401 -0.802547 -1.6345 -0.684109 0.178565 -0.269463 0.285407 0.0678015 0.00537416 -0.631676 2.26111 -0.303523 -1.15469 4.43736 4.66852 -1.03802 -3.97395 -3.98933 -0.126073 0.115579 -0.87488 0.303528 0.215244 -0.0270598 -0.0545547 -0.671099 -0.801217 -4.27789 1.73518 1.21465 2.58949 -7.50607 -6.44606 0.119612 0.0777992 0.712634 -0.236337 0.0884671 -0.0374833 0.0977491 2.51687 1.11952 0.180244 -2.13192 -1.08011 0.214997 0.936729 1.24688 -0.842801 0.10395 1.10513 0.643858 -0.263253 -0.396457 0.106946 -0.10097 0.11045 1.21462 0.736077 -0.33785 -0.130055 0.22239 1.69526 0.0999804 0.38689 -0.626109 0.887951 -0.0790232 -0.18599 0.894158 0.703069 -1.46555 -0.664704 -1.4864 0.798926 0.717973 -2.5416 -1.87347 -0.233404 0.0176719 -0.34913 0.177873 -0.577282 -0.466812 0.317729 -1.44673 2.71108 -2.71696 -1.94248 -0.999923 0.577126 1.0469 3.8562 0.00954526 -2.02768 0.493922 1.21932 0.79414 -0.413467 -0.112313 -3.49884 -1.46155 1.24373 0.172367 0.163834 -0.993792 0.299251 -0.888789 0.849642 -0.788117 0.103535 -0.799341 -0.788438 0.555894 1.56971 1.1254 1.63695 0.178836 -0.431351 -2.93735 -0.572065 1.15782 -2.17125 -1.7167 -0.627135 0.544541 1.56405 1.37424 1.56456 -1.13154 -1.37914 1.97785 -1.1733 0.311722 -0.941582 1.07816 -0.274341 1.70244 -0.945384 -1.46176 1.11452 -1.07425 -1.81645 -0.797795 0.461619 4.8313 1.19872 -1.37452 -0.530199 0.203627 -0.526925 0.0737719 -0.857946 -0.110593 0.360281 -0.350648 0.824703 -0.230332 0.600612 -0.533225 0.148538 -1.84075 0.17745 0.17297 0.952369 0.486069 1.15144 0.514414 -0.133443 0.684543 0.617476 0.215977 -0.456841 -0.691513 0.52249 0.774145 -1.13577 0.667287 -1.09217 1.09082 -0.319037 0.759745 -1.11397 -0.511687 -1.62855 -0.798286 0.630674 -2.03855 1.11172 0.111907 2.31429 -1.35001 -0.46998 -0.453718 -0.784741 0.283406 -0.608203 1.95377 0.126266 0.103735 -0.0546945 -0.318878 -2.36222 -0.344331 -0.353338 1.52601 -1.1151 0.24506 -1.11865 0.458438 -0.0806283 0.848585 -0.778047 1.06079 -2.37451 0.781287 0.573634 2.00687 -0.489509 -0.800139 -1.30958 0.439596 -0.747037 0.793188 -1.90475 0.0624314 -0.990611 1.70086 0.341137 1.88227 -0.74538 -0.16961 -0.968363 -0.606247 0.601445 0.155289 -0.963068 -0.819746 -0.504807 0.111854 -0.255173 -0.311189 -0.612149 0.833098 -0.428694 0.044717 -1.02423 1.00051 -1.66725 0.220264 -1.58458 -0.716034 0.730755 1.22132 1.9146 -0.20596 0.828902 -2.12921 0.0879032 -0.890484 0.101117 1.80733 2.09815 1.14321 -1.52387 1.81858 -1.19714 -1.14167 -0.0131653 0.305759 0.935906 0.0539857 0.287632 -1.40909 -0.303323 -0.212969 -0.530874 -0.850635 0.357383 0.442811 -0.1744 -0.172057 -0.336485 0.819386 -1.71673 -0.014103 0.166353 0.796551 -0.47396 -2.00644 -1.1897 0.698232 -2.14449 0.190601 -0.957851 -1.27639 0.475302 1.09721 0.239759 1.09243 -0.0119473 0.0757564 -1.2749 2.08456 0.214811 -0.790459 -1.81543 -2.31707 -0.39197 -0.841525 2.35417 -1.22214 