5 14 8 8 8 1
2.58542 -5.64014 -6.0846 0.379637 7.01178 7.29633 0.0615905 -0.0691154 0.496939 0.0149604 -0.150506 -0.0313641 0.00450705 -0.0244723 0.48944 0.836383 -1.56618 0.781462 -1.78703 1.04183 1.7837 -0.624378 -0.167694 -0.591079 0.423347 1.04688 0.0931289 0.0328026 -0.45879 -0.124087 0.393796 0.146059 -0.360221 -1.75097 -1.3298 -1.19519 -0.913734 0.387672 -0.522879 0.315998 -1.29673 -0.337591 0.31434 0.285646 1.74964 -1.20968 -2.57891 0.211083 2.28601 -3.89706 -2.77113 -0.227822 0.117444 0.228523 0.5809 -0.272442 -0.408631 -0.0599456 -1.74015 3.71169 -0.923631 0.668691 -0.969598 0.325165 -1.11534 2.05007 0.302794 -0.00678468 -0.985627 -0.0587419 0.114415 -0.713903 -0.903815 -1.57739 0.935164 1.1639 0.347729 -1.09146 -1.36207 0.549788 0.836 -0.0620742 0.520774 0.0163531 0.745204 -0.0288415 0.0174408 0.460123 -2.51406 -1.85872 -0.919553 0.0723553 -2.16023 -0.537978 -1.8484 -1.58472 0.329637 -0.28327 1.48808 -0.902321 1.06205 0.176885 -0.262356 0.455335 1.6769 -3.94908 1.71555 0.136405 2.62413 -7.50907 -6.21065 -0.154145 0.207128 0.891773 0.370238 0.19929 0.107677 0.10908 2.34984 -0.576782 -1.08832 -4.49229 -1.97514 0.233537 2.1819 -0.345571 -1.44908 1.18028 1.82623 -0.365696 -1.49034 0.270648 -0.971103 0.823764 1.31786 0.791224 0.258327 0.379293 0.788985 6.26212 0.264862 -1.53398 -1.61466 2.31668 2.57568 -1.63264 -1.81806 -0.162483 -1.28156 0.205824 -0.0478361 -0.614624 -0.41525 0.388039 -0.0148357 -0.0826696 -0.123383 0.284488 -1.3548 -0.145723 -0.0596604 0.458248 -0.874453 -0.128551 0.623176 -0.615831 1.78481 0.285973 0.570105 0.725756 -0.887519 -0.975275 0.968214 -1.27153 -0.976222 1.33987 0.701106 -0.896814 0.119861 -1.03172 -0.7883 -0.816954 -0.31438 -2.70558 3.19466 0.533279 0.303464 -0.474638 -0.352638 -0.260356 0.437572 -1.24428 -0.577304 -2.5822 -0.0975122 3.36384 -0.57707 -0.0370176 0.242604 -0.30714 1.18184 -0.474031 -2.04951 -1.238 1.78777 -0.990388 1.21704 0.337789 0.454499 1.52801 -0.939247 -0.141199 0.728465 -0.168893 0.170833 -0.0196762 -1.44662 -0.84165 -1.0872 -1.2673 2.41458 0.721143 -3.2167 -0.517859 0.423143 0.536263 -0.768163 -1.7516 -0.967442 -0.160783 -0.702805 -0.238645 -1.15086 -0.0529929 0.433451 0.307909 0.825232 -0.0247386 1.27193 -0.491281 -2.44085 0.328745 0.0554284 -1.01327 -0.392854 -1.47602 -1.59584 -1.37587 -1.88094 -0.274491 -1.10169 -1.62976 1.13342 1.25178 1.9386 -0.827572 -0.620981 0.261317 0.277444 0.0576319 -0.684139 -1.15485 -0.457971 -0.398148 0.795718 -2.15979 -1.75316 1.23702 3.24288 -0.613672 2.30022 -2.96468 0.814611 